{
    "hidden_layers": 3,
    "hidden_neurals": 52,
    "inputs": 200,
    "layers": [
        {
            "type": "inputs",
            "weights": [
                [
                    -0.21123415231704712,
                    0.566198468208313,
                    0.5968800783157349,
                    0.8232947587966919,
                    -0.6048972606658936,
                    -0.3295544981956482,
                    0.53645920753479,
                    -0.4444505572319031,
                    0.1079399585723877,
                    -0.045205891132354736,
                    0.2577418088912964,
                    -0.2704310417175293,
                    0.02680182456970215,
                    0.9044594764709473,
                    0.8323901891708374,
                    0.27142345905303955,
                    0.43459391593933105,
                    -0.7167948484420776,
                    0.21393775939941406,
                    -0.9673988819122314,
                    -0.5142264366149902,
                    -0.7255368232727051,
                    0.6083534955978394,
                    -0.6866418123245239,
                    -0.19811123609542847,
                    -0.7404191493988037,
                    -0.7823823690414429,
                    0.9978489875793457,
                    -0.5634862184524536,
                    0.025864839553833008,
                    0.6782244443893433,
                    0.22527968883514404,
                    -0.4079367518424988,
                    0.2751045227050781,
                    0.04857432842254639,
                    -0.012834012508392334,
                    0.9455500841140747,
                    -0.4149664044380188,
                    0.5427154302597046,
                    0.05348992347717285,
                    0.5398277044296265,
                    -0.19954276084899902,
                    0.7830588817596436,
                    -0.43337053060531616,
                    -0.29508328437805176,
                    0.615449070930481,
                    0.8380529880523682,
                    -0.8604894280433655,
                    0.8986541032791138,
                    0.05199074745178223,
                    -0.8278883099555969,
                    -0.6155723333358765
                ],
                [
                    0.3264538049697876,
                    0.7804652452468872,
                    -0.3022141456604004,
                    -0.8716573715209961,
                    -0.9599539041519165,
                    -0.08459651470184326,
                    -0.8738083243370056,
                    -0.5234401226043701,
                    0.9412682056427002,
                    0.8044161796569824,
                    0.7018395662307739,
                    -0.4666684865951538,
                    0.07952070236206055,
                    -0.2495860457420349,
                    0.5204974412918091,
                    0.025070786476135254,
                    0.3354475498199463,
                    0.06321287155151367,
                    -0.9214392900466919,
                    -0.12472480535507202,
                    0.8636701107025146,
                    0.8616195917129517,
                    0.4419046640396118,
                    -0.4314131736755371,
                    0.4770686626434326,
                    0.27995765209198,
                    -0.29190266132354736,
                    0.3757227659225464,
                    -0.6680516600608826,
                    -0.11979097127914429,
                    0.7601504325866699,
                    0.6584022045135498,
                    -0.3393257260322571,
                    -0.5420636534690857,
                    0.7867448329925537,
                    -0.2992796301841736,
                    0.37333977222442627,
                    0.9129364490509033,
                    0.17728030681610107,
                    0.314608097076416,
                    0.7173526287078857,
                    -0.12088018655776978,
                    0.8479396104812622,
                    -0.2031266689300537,
                    0.6295337677001953,
                    0.3684370517730713,
                    0.8219441175460815,
                    -0.0350186824798584,
                    -0.568350076675415,
                    0.9005047082901001,
                    0.8402564525604248,
                    -0.7046799659729004
                ],
                [
                    0.7621243000030518,
                    0.28216123580932617,
                    -0.1360931396484375,
                    0.23919296264648438,
                    -0.4378811717033386,
                    0.5720041990280151,
                    -0.38508427143096924,
                    -0.10593283176422119,
                    -0.5477867126464844,
                    -0.6249337792396545,
                    -0.4475306272506714,
                    0.11288750171661377,
                    -0.16699743270874023,
                    -0.6607857942581177,
                    0.8136078119277954,
                    -0.793657660484314,
                    -0.7478493452072144,
                    -0.009111881256103516,
                    0.520950436592102,
                    0.9695032835006714,
                    0.8700079917907715,
                    0.36889004707336426,
                    -0.23362332582473755,
                    0.4995417594909668,
                    -0.26267290115356445,
                    -0.4116792678833008,
                    -0.5354769229888916,
                    0.1689770221710205,
                    -0.5111745595932007,
                    -0.695220410823822,
                    0.4642970561981201,
                    -0.7490501999855042,
                    0.5869407653808594,
                    -0.6717961430549622,
                    0.490142822265625,
                    -0.8509404063224792,
                    0.9002081155776978,
                    -0.8949414491653442,
                    0.043126702308654785,
                    -0.6475787162780762,
                    -0.5198752880096436,
                    0.5955960750579834,
                    0.4653087854385376,
                    0.3131272792816162,
                    0.9348102807998657,
                    0.27891671657562256,
                    0.5194697380065918,
                    -0.8130390644073486,
                    -0.730195164680481,
                    0.04042017459869385,
                    -0.8435357213020325,
                    -0.8601871728897095
                ],
                [
                    -0.5906898379325867,
                    -0.07715904712677002,
                    0.6393545866012573,
                    0.1466372013092041,
                    0.5111616849899292,
                    -0.8961223363876343,
                    -0.6843857765197754,
                    0.9999871253967285,
                    -0.5913428068161011,
                    0.7799112796783447,
                    -0.7490630149841309,
                    0.9955979585647583,
                    -0.8918848633766174,
                    0.7410796880722046,
                    -0.8553423881530762,
                    -0.9916768074035645,
                    0.8461382389068604,
                    0.1877843141555786,
                    -0.6392554640769958,
                    -0.6737369894981384,
                    -0.2166195511817932,
                    0.8260533809661865,
                    0.6393903493881226,
                    -0.2818092703819275,
                    0.10497009754180908,
                    0.1588599681854248,
                    -0.09484833478927612,
                    0.3747748136520386,
                    -0.8007198572158813,
                    0.061615943908691406,
                    0.5145876407623291,
                    -0.391409695148468,
                    0.9844568967819214,
                    0.15394222736358643,
                    0.7552275657653809,
                    0.4956185817718506,
                    0.25781989097595215,
                    -0.9291582107543945,
                    0.4956057071685791,
                    0.6664770841598511,
                    0.8507530689239502,
                    0.7465426921844482,
                    0.6620750427246094,
                    0.9588682651519775,
                    0.48762238025665283,
                    0.8067326545715332,
                    0.9671914577484131,
                    0.3337606191635132,
                    -0.005482971668243408,
                    -0.6720640063285828,
                    0.6600236892700195,
                    0.7778974771499634
                ],
                [
                    -0.8460106253623962,
                    0.29941391944885254,
                    -0.5039117336273193,
                    0.25895941257476807,
                    -0.5417260527610779,
                    0.40123987197875977,
                    -0.3662657141685486,
                    -0.34244590997695923,
                    -0.5371440649032593,
                    -0.8516780734062195,
                    0.26614439487457275,
                    -0.5526871681213379,
                    0.3022642135620117,
                    0.021371960639953613,
                    0.9429314136505127,
                    -0.4399159550666809,
                    0.09221374988555908,
                    0.4385371208190918,
                    -0.7734388709068298,
                    -0.05703312158584595,
                    0.18507981300354004,
                    0.8886362314224243,
                    -0.09816485643386841,
                    -0.32729774713516235,
                    0.6953688859939575,
                    -0.13097339868545532,
                    -0.9935370683670044,
                    -0.3101140856742859,
                    0.19696259498596191,
                    0.6664866209030151,
                    -0.5322165489196777,
                    0.3509519100189209,
                    -0.034099459648132324,
                    -0.036128342151641846,
                    -0.39008861780166626,
                    0.42417454719543457,
                    -0.6348884105682373,
                    0.24364566802978516,
                    -0.9182714223861694,
                    -0.17203253507614136,
                    0.3919675350189209,
                    0.3478729724884033,
                    0.2752803564071655,
                    -0.3057682514190674,
                    -0.6307550668716431,
                    0.21821177005767822,
                    0.25431573390960693,
                    0.461458683013916,
                    -0.34325110912323,
                    0.4808769226074219,
                    -0.5955744385719299,
                    0.8418287038803101
                ],
                [
                    0.36951303482055664,
                    0.30626070499420166,
                    -0.4854690432548523,
                    0.06488192081451416,
                    -0.8247127532958984,
                    -0.4790061116218567,
                    0.754767894744873,
                    0.3722498416900635,
                    -0.8125195503234863,
                    -0.7774487733840942,
                    -0.27679818868637085,
                    0.15338099002838135,
                    0.1864229440689087,
                    0.3331131935119629,
                    -0.4224444627761841,
                    0.5515345335006714,
                    -0.42324119806289673,
                    -0.34071582555770874,
                    -0.6204980611801147,
                    0.968726396560669,
                    -0.9928428530693054,
                    0.6547822952270508,
                    -0.33704185485839844,
                    -0.6235979199409485,
                    -0.12700599431991577,
                    0.9172738790512085,
                    0.8378608226776123,
                    0.5297428369522095,
                    0.39815080165863037,
                    -0.7577136754989624,
                    0.37157154083251953,
                    -0.2323361039161682,
                    0.5485470294952393,
                    0.886102557182312,
                    0.8325458765029907,
                    0.7238342761993408,
                    -0.5929035544395447,
                    0.5873136520385742,
                    0.0960841178894043,
                    -0.405423104763031,
                    0.8098649978637695,
                    0.8192858695983887,
                    0.7479579448699951,
                    -0.003712177276611328,
                    0.15239906311035156,
                    -0.674486517906189,
                    -0.45217764377593994,
                    0.7291579246520996,
                    -0.015202343463897705,
                    -0.07267570495605469,
                    0.6978843212127686,
                    -0.008045196533203125
                ],
                [
                    -0.4178934097290039,
                    -0.6391575336456299,
                    0.3683568239212036,
                    0.45510053634643555,
                    -0.7218835949897766,
                    0.20621764659881592,
                    -0.015156567096710205,
                    0.676267147064209,
                    0.4485039710998535,
                    -0.6435849666595459,
                    -0.5560688972473145,
                    -0.002949059009552002,
                    -0.7574824094772339,
                    -0.7235230803489685,
                    -0.2791147828102112,
                    -0.35038602352142334,
                    0.8637906312942505,
                    0.8169692754745483,
                    0.24419093132019043,
                    0.6736555099487305,
                    0.6362552642822266,
                    -0.007851183414459229,
                    -0.3300566077232361,
                    -0.21134567260742188,
                    0.3176623582839966,
                    0.2177656888961792,
                    -0.48218774795532227,
                    -0.6975400447845459,
                    -0.8549100160598755,
                    -0.7843034267425537,
                    0.294414758682251,
                    -0.2728034257888794,
                    -0.4234609603881836,
                    -0.33722835779190063,
                    -0.8177028298377991,
                    -0.1453445553779602,
                    0.8689893484115601,
                    0.16714060306549072,
                    -0.46907734870910645,
                    0.3174933195114136,
                    0.5235556364059448,
                    -0.0251462459564209,
                    -0.6854557991027832,
                    0.7660732269287109,
                    0.2513306140899658,
                    0.03542947769165039,
                    -0.5843127965927124,
                    0.11512124538421631,
                    -0.14760124683380127,
                    0.659878134727478,
                    -0.21122324466705322,
                    -0.5113459825515747
                ],
                [
                    -0.3479730486869812,
                    0.4587200880050659,
                    0.2773083448410034,
                    0.9696892499923706,
                    -0.3235141634941101,
                    0.7951204776763916,
                    -0.7278507947921753,
                    -0.17842411994934082,
                    -0.9891828894615173,
                    0.5665639638900757,
                    0.5487724542617798,
                    -0.41264384984970093,
                    -0.770664393901825,
                    0.7310696840286255,
                    0.44201159477233887,
                    -0.9016751050949097,
                    -0.10178977251052856,
                    0.9729342460632324,
                    0.4158182144165039,
                    -0.5782341957092285,
                    -0.05221205949783325,
                    0.7303624153137207,
                    -0.8121609687805176,
                    -0.8008813858032227,
                    -0.2342081069946289,
                    -0.39647382497787476,
                    0.31423985958099365,
                    0.6181906461715698,
                    -0.7365957498550415,
                    -0.8969834446907043,
                    -0.8931553959846497,
                    -0.0845687985420227,
                    0.5617367029190063,
                    0.384152889251709,
                    -0.1148795485496521,
                    -0.761777400970459,
                    0.17927336692810059,
                    0.15726971626281738,
                    0.059798479080200195,
                    0.19009053707122803,
                    -0.27616631984710693,
                    -0.39142906665802,
                    0.7774466276168823,
                    -0.046830713748931885,
                    -0.6603595018386841,
                    0.2194582223892212,
                    0.05149424076080322,
                    0.23785078525543213,
                    0.1923924684524536,
                    -0.5326875448226929,
                    0.6596165895462036,
                    -0.8598195910453796
                ],
                [
                    -0.8023251295089722,
                    0.847455620765686,
                    -0.6607010364532471,
                    -0.03653329610824585,
                    -0.549018144607544,
                    0.6535388231277466,
                    -0.418342649936676,
                    -0.28561389446258545,
                    0.756555438041687,
                    -0.31149810552597046,
                    0.6298173666000366,
                    0.31829214096069336,
                    -0.9273452162742615,
                    -0.4850621819496155,
                    0.5565146207809448,
                    0.2519282102584839,
                    0.6722074747085571,
                    -0.383686900138855,
                    -0.5579812526702881,
                    -0.6039588451385498,
                    0.224884033203125,
                    -0.7805346250534058,
                    0.3492105007171631,
                    0.5645245313644409,
                    0.43892359733581543,
                    -0.5992952585220337,
                    -0.19762468338012695,
                    -0.36868393421173096,
                    -0.13198286294937134,
                    -0.5380080938339233,
                    -0.2285035252571106,
                    0.06569194793701172,
                    -0.6905524730682373,
                    0.11079549789428711,
                    -0.9708412885665894,
                    -0.23957067728042603,
                    -0.2356656789779663,
                    -0.38918399810791016,
                    0.4748154878616333,
                    -0.47911030054092407,
                    0.29931795597076416,
                    0.10463273525238037,
                    0.8391817808151245,
                    0.3719726800918579,
                    0.6195706129074097,
                    0.39569640159606934,
                    -0.37609905004501343,
                    0.2917780876159668,
                    -0.9879904389381409,
                    0.06591963768005371,
                    0.687819242477417,
                    0.23689353466033936
                ],
                [
                    0.28538501262664795,
                    0.03702974319458008,
                    -0.19858193397521973,
                    -0.27569133043289185,
                    0.4377344846725464,
                    0.6037933826446533,
                    0.3556246757507324,
                    -0.6942484378814697,
                    -0.93421471118927,
                    -0.8728787899017334,
                    0.37144362926483154,
                    -0.6247671842575073,
                    0.2379167079925537,
                    0.40060222148895264,
                    0.13566219806671143,
                    -0.9977490305900574,
                    -0.9885817170143127,
                    -0.38952237367630005,
                    -0.47685933113098145,
                    0.31073617935180664,
                    0.7151104211807251,
                    -0.6376775503158569,
                    -0.3172910809516907,
                    0.33468103408813477,
                    0.7580188512802124,
                    0.3066098690032959,
                    -0.37354087829589844,
                    0.7700284719467163,
                    -0.6274704337120056,
                    -0.6857216358184814,
                    0.006922006607055664,
                    0.6579146385192871,
                    0.35130810737609863,
                    0.8083400726318359,
                    -0.6177767515182495,
                    -0.21095740795135498,
                    0.41213345527648926,
                    0.7378480434417725,
                    0.09479415416717529,
                    0.47791874408721924,
                    0.8649692535400391,
                    -0.5337622165679932,
                    0.8531515598297119,
                    0.10288584232330322,
                    0.8668400049209595,
                    -0.01118624210357666,
                    0.10513687133789063,
                    0.8782583475112915,
                    0.5992914438247681,
                    0.6282774209976196,
                    0.18899452686309814,
                    0.31440186500549316
                ],
                [
                    0.9905998706817627,
                    0.8717035055160522,
                    -0.35091716051101685,
                    0.7486187219619751,
                    0.17831337451934814,
                    0.27554190158843994,
                    0.5186471939086914,
                    0.5508428812026978,
                    0.5898202657699585,
                    -0.4744308590888977,
                    0.20875751972198486,
                    -0.058871567249298096,
                    -0.6660907864570618,
                    0.5909807682037354,
                    0.7301709651947021,
                    0.7460427284240723,
                    0.3288288116455078,
                    -0.17503482103347778,
                    0.2239614725112915,
                    0.19379806518554688,
                    0.29120302200317383,
                    0.07711303234100342,
                    -0.7033160924911499,
                    0.1580430269241333,
                    -0.9340732097625732,
                    0.40182065963745117,
                    0.036301374435424805,
                    0.6652182340621948,
                    0.03009819984436035,
                    -0.774704098701477,
                    -0.020380020141601563,
                    0.020698070526123047,
                    -0.9030006527900696,
                    0.6287028789520264,
                    -0.23068320751190186,
                    0.27531278133392334,
                    -0.09575521945953369,
                    -0.7120360136032104,
                    -0.1738443374633789,
                    -0.5059349536895752,
                    -0.18646687269210815,
                    -0.965086817741394,
                    0.4351935386657715,
                    0.14744234085083008,
                    0.6258940696716309,
                    0.16536450386047363,
                    -0.10651493072509766,
                    -0.045277178287506104,
                    0.9903297424316406,
                    -0.8825535178184509,
                    -0.851479172706604,
                    0.2815326452255249
                ],
                [
                    0.19455957412719727,
                    -0.5547952651977539,
                    -0.5604243278503418,
                    0.260486364364624,
                    0.8470253944396973,
                    0.475877046585083,
                    -0.0742955207824707,
                    -0.12287640571594238,
                    0.701172947883606,
                    0.9053244590759277,
                    0.8978216648101807,
                    0.7981722354888916,
                    0.5340273380279541,
                    -0.3328615427017212,
                    0.07348501682281494,
                    -0.5617278814315796,
                    -0.04489755630493164,
                    0.899640679359436,
                    -0.06766283512115479,
                    0.768635630607605,
                    0.934553861618042,
                    -0.6324692964553833,
                    -0.08392202854156494,
                    0.5604479312896729,
                    0.5328952074050903,
                    0.8095630407333374,
                    -0.48482924699783325,
                    0.5232248306274414,
                    0.9270094633102417,
                    -0.33630841970443726,
                    -0.19524246454238892,
                    0.12156903743743896,
                    0.10889637470245361,
                    0.24433326721191406,
                    -0.6179446578025818,
                    -0.04407823085784912,
                    -0.2797897458076477,
                    0.3077598810195923,
                    0.8330453634262085,
                    -0.5786168575286865,
                    0.21308434009552002,
                    0.7308670282363892,
                    -0.7804446220397949,
                    -0.2528883218765259,
                    -0.601994514465332,
                    0.29304039478302,
                    0.18538379669189453,
                    0.35310792922973633,
                    0.19268107414245605,
                    -0.8822790384292603,
                    0.12174355983734131,
                    0.1272348165512085
                ],
                [
                    -0.5147483348846436,
                    -0.9621784687042236,
                    -0.31231725215911865,
                    -0.9818531274795532,
                    0.8473845720291138,
                    0.20285344123840332,
                    0.5413717031478882,
                    0.7743940353393555,
                    0.8665450811386108,
                    -0.653870701789856,
                    -0.10403692722320557,
                    -0.024558603763580322,
                    0.5904625654220581,
                    0.27801835536956787,
                    0.9313631057739258,
                    -0.6893272399902344,
                    -0.41422176361083984,
                    0.7644084692001343,
                    -0.2679440975189209,
                    0.7988625764846802,
                    0.49527549743652344,
                    -0.04838871955871582,
                    -0.4540257453918457,
                    0.8932809829711914,
                    -0.7553483843803406,
                    0.7313580513000488,
                    0.24638891220092773,
                    0.4373326301574707,
                    0.8490790128707886,
                    -0.631867527961731,
                    -0.435432493686676,
                    -0.665669322013855,
                    -0.5940460562705994,
                    0.2522503137588501,
                    -0.6475224494934082,
                    -0.7466615438461304,
                    -0.5448962450027466,
                    0.8938493728637695,
                    -0.9722675085067749,
                    -0.6783511638641357,
                    -0.7600213289260864,
                    -0.07630443572998047,
                    0.2970902919769287,
                    0.8304411172866821,
                    -0.7982860803604126,
                    0.2284533977508545,
                    -0.8588860630989075,
                    -0.21250784397125244,
                    -0.007138073444366455,
                    -0.12683016061782837,
                    -0.41364526748657227,
                    -0.5118625164031982
                ],
                [
                    0.824781060218811,
                    0.13232898712158203,
                    -0.6185815334320068,
                    -0.9305672645568848,
                    -0.13631296157836914,
                    0.6278073787689209,
                    0.5067653656005859,
                    -0.28723394870758057,
                    0.9959397315979004,
                    -0.9286671280860901,
                    0.04709672927856445,
                    -0.5981062650680542,
                    0.32358312606811523,
                    0.39957427978515625,
                    -0.3447677493095398,
                    0.7786868810653687,
                    0.2934236526489258,
                    -0.3170352578163147,
                    -0.8996642231941223,
                    0.5334023237228394,
                    0.6066603660583496,
                    0.3974260091781616,
                    0.3638434410095215,
                    0.808374285697937,
                    -0.3741205930709839,
                    0.5049574375152588,
                    -0.40413355827331543,
                    0.6187413930892944,
                    -0.6218727827072144,
                    0.1822211742401123,
                    -0.8931211829185486,
                    -0.7970917224884033,
                    -0.6854498386383057,
                    -0.5117027759552002,
                    -0.7276589870452881,
                    0.1782371997833252,
                    -0.8838954567909241,
                    0.7791063785552979,
                    0.8910032510757446,
                    -0.8879556655883789,
                    0.8504393100738525,
                    -0.06189996004104614,
                    -0.48606187105178833,
                    0.17402243614196777,
                    -0.6623256802558899,
                    0.16917037963867188,
                    -0.047290682792663574,
                    0.6310980319976807,
                    0.8521350622177124,
                    0.05304515361785889,
                    0.16450023651123047,
                    0.458795428276062
                ],
                [
                    -0.5495288372039795,
                    -0.47165626287460327,
                    0.267169713973999,
                    0.07635056972503662,
                    -0.9666988253593445,
                    0.8630361557006836,
                    -0.3049080967903137,
                    -0.5885716080665588,
                    0.0452573299407959,
                    -0.1980292797088623,
                    -0.38566333055496216,
                    0.35980749130249023,
                    0.2902679443359375,
                    -0.11332225799560547,
                    -0.46195530891418457,
                    0.4063725471496582,
                    -0.3342158794403076,
                    -0.5709520578384399,
                    0.5184168815612793,
                    -0.48377662897109985,
                    0.3671480417251587,
                    -0.9676450490951538,
                    0.6902457475662231,
                    0.704822301864624,
                    0.20152533054351807,
                    -0.35704493522644043,
                    0.3359203338623047,
                    0.05366039276123047,
                    0.6960002183914185,
                    -0.49957937002182007,
                    -0.4875442385673523,
                    -0.8535286784172058,
                    0.02876436710357666,
                    0.779625415802002,
                    0.22282183170318604,
                    0.0620654821395874,
                    0.6426615715026855,
                    0.9179137945175171,
                    0.47349393367767334,
                    -0.31208109855651855,
                    -0.28011554479599,
                    -0.9121693968772888,
                    -0.9522736072540283,
                    -0.9898476004600525,
                    -0.025491654872894287,
                    -0.4142288565635681,
                    0.41652488708496094,
                    0.6402924060821533,
                    0.014819145202636719,
                    -0.06505823135375977,
                    -0.8434842228889465,
                    -0.6180329322814941
                ],
                [
                    -0.032703280448913574,
                    0.8467614650726318,
                    -0.9132105708122253,
                    -0.8311780095100403,
                    -0.510283350944519,
                    0.42270970344543457,
                    0.2224823236465454,
                    -0.8142831921577454,
                    0.9231303930282593,
                    0.7349381446838379,
                    -0.6678118705749512,
                    -0.04810529947280884,
                    0.5145635604858398,
                    0.5550099611282349,
                    -0.9860397577285767,
                    0.1572251319885254,
                    0.47292375564575195,
                    0.4874541759490967,
                    0.8451440334320068,
                    -0.8071917295455933,
                    0.5752847194671631,
                    0.8928704261779785,
                    -0.7970393896102905,
                    -0.4502069354057312,
                    -0.5213584303855896,
                    0.6194854974746704,
                    -0.8099144697189331,
                    0.49346065521240234,
                    -0.44557273387908936,
                    -0.6533987522125244,
                    0.8754277229309082,
                    0.5217239856719971,
                    -0.8066372275352478,
                    0.9622172117233276,
                    0.6905460357666016,
                    -0.3169206380844116,
                    0.3849269151687622,
                    -0.08697164058685303,
                    -0.13120383024215698,
                    0.3080573081970215,
                    -0.35203349590301514,
                    0.20098435878753662,
                    -0.7400480508804321,
                    -0.8374699354171753,
                    -0.24400568008422852,
                    -0.7260878086090088,
                    0.3197551965713501,
                    -0.7710819244384766,
                    0.7613663673400879,
                    0.16489923000335693,
                    -0.5782736539840698,
                    0.336651086807251
                ],
                [
                    0.05776965618133545,
                    -0.37531304359436035,
                    0.8864442110061646,
                    0.5364112854003906,
                    -0.7558274865150452,
                    -0.9234703183174133,
                    0.02987194061279297,
                    -0.20140022039413452,
                    -0.5768690705299377,
                    -0.09470033645629883,
                    -0.6796761751174927,
                    -0.38350629806518555,
                    -0.13248318433761597,
                    -0.9891301989555359,
                    0.29957306385040283,
                    -0.747556209564209,
                    -0.07610183954238892,
                    -0.8316307067871094,
                    0.560500979423523,
                    0.5718646049499512,
                    0.36935365200042725,
                    0.8204530477523804,
                    0.7343946695327759,
                    -0.874652087688446,
                    -0.9056347608566284,
                    0.05414986610412598,
                    -0.6457340717315674,
                    0.8557316064834595,
                    -0.7809508442878723,
                    -0.2240077257156372,
                    0.19238269329071045,
                    0.2768188714981079,
                    0.40067923069000244,
                    0.07882678508758545,
                    -0.18676990270614624,
                    0.6448516845703125,
                    0.1553565263748169,
                    0.843101978302002,
                    -0.5565484762191772,
                    0.5784873962402344,
                    -0.2515982985496521,
                    -0.2362247109413147,
                    -0.8050188422203064,
                    0.6159185171127319,
                    -0.22535490989685059,
                    0.4945542812347412,
                    0.868362307548523,
                    0.6985431909561157,
                    0.6629235744476318,
                    0.4288632869720459,
                    0.2704077959060669,
                    0.03227710723876953
                ],
                [
                    0.24931633472442627,
                    0.004802584648132324,
                    0.15762507915496826,
                    0.34368157386779785,
                    -0.9410475492477417,
                    0.5118910074234009,
                    0.19941306114196777,
                    -0.721998393535614,
                    -0.7121167182922363,
                    -0.6082042455673218,
                    0.5548205375671387,
                    0.6885625123977661,
                    0.47062253952026367,
                    -0.6319494247436523,
                    0.3334141969680786,
                    -0.37402093410491943,
                    -0.7888473868370056,
                    0.7768657207489014,
                    -0.7955334782600403,
                    -0.04044574499130249,
                    -0.45935899019241333,
                    -0.6005523204803467,
                    -0.42452722787857056,
                    0.3152860403060913,
                    0.8940019607543945,
                    -0.5561649203300476,
                    0.013829350471496582,
                    0.5569254159927368,
                    0.8726984262466431,
                    -0.7157628536224365,
                    -0.4107974171638489,
                    0.12201476097106934,
                    0.2890397310256958,
                    0.7468276023864746,
                    -0.5343037843704224,
                    0.3479921817779541,
                    0.2587186098098755,
                    0.6651092767715454,
                    0.6259937286376953,
                    0.5466018915176392,
                    -0.9430949091911316,
                    0.18081426620483398,
                    0.23516440391540527,
                    0.5275276899337769,
                    0.5488648414611816,
                    -0.4314214587211609,
                    -0.8464932441711426,
                    0.7600173950195313,
                    -0.6545557379722595,
                    -0.6420267224311829,
                    -0.28042829036712646,
                    -0.11391472816467285
                ],
                [
                    -0.24257904291152954,
                    0.29504454135894775,
                    -0.7986286282539368,
                    -0.348577082157135,
                    0.7388795614242554,
                    0.21520066261291504,
                    -0.7916516065597534,
                    0.6115779876708984,
                    0.4994378089904785,
                    -0.2024490237236023,
                    -0.266407310962677,
                    -0.21152251958847046,
                    -0.4556214213371277,
                    0.19928884506225586,
                    -0.8635303974151611,
                    0.8030972480773926,
                    -0.13560175895690918,
                    0.7624633312225342,
                    0.34969913959503174,
                    -0.07869672775268555,
                    -0.056722402572631836,
                    -0.41513651609420776,
                    -0.5511690378189087,
                    -0.5078575611114502,
                    0.15344202518463135,
                    -0.39766228199005127,
                    -0.747840166091919,
                    0.4988863468170166,
                    -0.03968900442123413,
                    -0.02826845645904541,
                    -0.6150283813476563,
                    0.7177319526672363,
                    -0.7332239747047424,
                    -0.4136570692062378,
                    -0.6308451294898987,
                    -0.9943444132804871,
                    0.8015435934066772,
                    -0.4224967956542969,
                    0.6172335147857666,
                    0.30098140239715576,
                    0.3750542402267456,
                    -0.6491737961769104,
                    -0.9105410575866699,
                    0.9194327592849731,
                    0.5501151084899902,
                    -0.774071455001831,
                    0.7225300073623657,
                    -0.585486650466919,
                    0.9883919954299927,
                    0.07222914695739746,
                    0.3358166217803955,
                    -0.06833046674728394
                ],
                [
                    0.6570926904678345,
                    0.7846475839614868,
                    0.4238119125366211,
                    -0.18946528434753418,
                    -0.6130146980285645,
                    0.6759717464447021,
                    -0.6905789971351624,
                    0.3472963571548462,
                    -0.35229671001434326,
                    -0.3056073784828186,
                    0.06502830982208252,
                    -0.0855206847190857,
                    0.2807356119155884,
                    0.43418312072753906,
                    -0.07986509799957275,
                    0.08227920532226563,
                    -0.988313615322113,
                    -0.4626315236091614,
                    -0.6167393922805786,
                    0.3867405652999878,
                    -0.11180531978607178,
                    -0.5272804498672485,
                    0.30617332458496094,
                    -0.5616902112960815,
                    -0.3013518452644348,
                    0.02870333194732666,
                    -0.1471768617630005,
                    -0.3129599094390869,
                    -0.8990674614906311,
                    -0.811360239982605,
                    0.6187095642089844,
                    0.7580251693725586,
                    0.9732873439788818,
                    0.04252159595489502,
                    -0.4314401149749756,
                    -0.6397273540496826,
                    -0.28150665760040283,
                    -0.12201911211013794,
                    0.7075690031051636,
                    0.3661966323852539,
                    0.5723735094070435,
                    -0.2274026870727539,
                    -0.719323992729187,
                    -0.14689093828201294,
                    -0.7932195663452148,
                    0.20081090927124023,
                    0.9353882074356079,
                    -0.7815331220626831,
                    0.7381793260574341,
                    -0.6813511848449707,
                    0.6052074432373047,
                    -0.3736259937286377
                ],
                [
                    -0.20863157510757446,
                    -0.08861923217773438,
                    0.06468379497528076,
                    0.4900165796279907,
                    0.9400842189788818,
                    0.9175069332122803,
                    -0.822943389415741,
                    -0.958983302116394,
                    -0.8938533067703247,
                    0.7957662343978882,
                    0.7990418672561646,
                    -0.9205659627914429,
                    -0.16171222925186157,
                    -0.632398247718811,
                    -0.5602933168411255,
                    0.5567811727523804,
                    0.24558258056640625,
                    -0.8527243137359619,
                    -0.07702219486236572,
                    -0.1820439100265503,
                    -0.08012700080871582,
                    0.20365381240844727,
                    0.671065092086792,
                    0.12665343284606934,
                    -0.5955353379249573,
                    0.6064534187316895,
                    0.34512031078338623,
                    -0.8573559522628784,
                    0.9251022338867188,
                    -0.04967224597930908,
                    -0.2309820055961609,
                    -0.2835294008255005,
                    0.8617085218429565,
                    0.8337018489837646,
                    -0.7935128211975098,
                    0.8017927408218384,
                    0.7512086629867554,
                    -0.6164562702178955,
                    0.8428094387054443,
                    0.8573553562164307,
                    -0.8206900358200073,
                    0.6418513059616089,
                    0.9367893934249878,
                    0.01759779453277588,
                    -0.9905470013618469,
                    -0.6235039234161377,
                    -0.4256210923194885,
                    0.2550356388092041,
                    -0.47622817754745483,
                    0.4973567724227905,
                    -0.9270082712173462,
                    0.4436448812484741
                ],
                [
                    -0.298989474773407,
                    0.7440569400787354,
                    -0.42970162630081177,
                    0.10547518730163574,
                    0.35051023960113525,
                    0.9154187440872192,
                    0.24811923503875732,
                    0.275612473487854,
                    -0.13425356149673462,
                    -0.9828627705574036,
                    0.9920830726623535,
                    -0.2725450396537781,
                    0.8508390188217163,
                    -0.8014297485351563,
                    -0.4707523584365845,
                    0.6020478010177612,
                    -0.41788601875305176,
                    -0.6279429197311401,
                    0.4594031572341919,
                    -0.23857605457305908,
                    -0.9860916137695313,
                    0.3961925506591797,
                    0.7790217399597168,
                    -0.9766386151313782,
                    0.772688627243042,
                    -0.646599292755127,
                    0.2783970832824707,
                    -0.7035394906997681,
                    0.850757360458374,
                    0.3513888120651245,
                    0.740105390548706,
                    -0.4482320547103882,
                    0.09544563293457031,
                    -0.6895962953567505,
                    0.6572431325912476,
                    -0.5540440678596497,
                    -0.7741775512695313,
                    -0.09463769197463989,
                    0.7215684652328491,
                    0.09156882762908936,
                    -0.07750046253204346,
                    0.7136515378952026,
                    0.819023847579956,
                    -0.22666144371032715,
                    0.9122217893600464,
                    -0.6517285108566284,
                    -0.6246136426925659,
                    -0.5056642293930054,
                    -0.27967143058776855,
                    0.834789514541626,
                    0.25575971603393555,
                    -0.2657630443572998
                ],
                [
                    0.23098206520080566,
                    0.034781455993652344,
                    -0.24240165948867798,
                    0.0036706924438476563,
                    0.3881821632385254,
                    -0.964004635810852,
                    0.3001312017440796,
                    0.23893952369689941,
                    0.38738417625427246,
                    0.040236592292785645,
                    0.7907074689865112,
                    -0.5171701908111572,
                    0.35064029693603516,
                    0.4479506015777588,
                    -0.07121425867080688,
                    0.5764627456665039,
                    -0.6466871500015259,
                    -0.34964579343795776,
                    -0.33196842670440674,
                    0.27581238746643066,
                    -0.6359943151473999,
                    -0.5129446387290955,
                    -0.9508489966392517,
                    -0.7237725257873535,
                    -0.16467314958572388,
                    -0.5754626989364624,
                    -0.22943681478500366,
                    0.5556554794311523,
                    -0.7406731843948364,
                    -0.9736770987510681,
                    -0.7101076245307922,
                    0.4903087615966797,
                    0.061104416847229004,
                    0.047490715980529785,
                    -0.5060205459594727,
                    -0.5507134795188904,
                    0.08348608016967773,
                    0.7941106557846069,
                    0.6882259845733643,
                    -0.5291298031806946,
                    -0.1656528115272522,
                    0.4789334535598755,
                    -0.04629999399185181,
                    -0.815012514591217,
                    -0.0731160044670105,
                    0.8824857473373413,
                    0.7614501714706421,
                    0.2801969051361084,
                    -0.46716004610061646,
                    -0.5705182552337646,
                    -0.44399070739746094,
                    -0.10315430164337158
                ],
                [
                    -0.08346289396286011,
                    -0.39483970403671265,
                    0.1730731725692749,
                    0.751863956451416,
                    0.029697656631469727,
                    0.9436362981796265,
                    0.30751943588256836,
                    0.28902435302734375,
                    0.9699592590332031,
                    0.5974117517471313,
                    -0.220666766166687,
                    0.03106367588043213,
                    -0.35509753227233887,
                    0.27331268787384033,
                    0.480350136756897,
                    0.7283885478973389,
                    0.06742334365844727,
                    0.16857624053955078,
                    -0.8007413148880005,
                    0.9017705917358398,
                    -0.35249030590057373,
                    0.15295875072479248,
                    -0.913241982460022,
                    0.5743937492370605,
                    0.03544449806213379,
                    0.8482081890106201,
                    -0.14540940523147583,
                    0.5682843923568726,
                    -0.7223100662231445,
                    0.41059982776641846,
                    -0.534869909286499,
                    0.19422698020935059,
                    -0.9842398166656494,
                    0.6382032632827759,
                    -0.05390900373458862,
                    0.04545772075653076,
                    0.5818395614624023,
                    -0.746389627456665,
                    -0.6655178070068359,
                    0.5517988204956055,
                    0.8510221242904663,
                    0.11381542682647705,
                    -0.4171374440193176,
                    -0.5040754079818726,
                    -0.6128718852996826,
                    -0.9367873072624207,
                    -0.7756868600845337,
                    0.45455145835876465,
                    0.23178887367248535,
                    -0.5764281749725342,
                    0.35632193088531494,
                    0.8792985677719116
                ],
                [
                    0.5571969151496887,
                    0.4077136814594269,
                    0.43813663721084595,
                    -0.39343294501304626,
                    0.30320820212364197,
                    -0.8982431292533875,
                    -0.8185238838195801,
                    0.7466723322868347,
                    0.7142803072929382,
                    -0.41430407762527466,
                    -0.10335613787174225,
                    0.722880482673645,
                    -0.7034047245979309,
                    0.597957968711853,
                    -0.2145898938179016,
                    0.8655624389648438,
                    0.8197867274284363,
                    0.2968360483646393,
                    0.5257396697998047,
                    0.6194400787353516,
                    -0.7327565550804138,
                    -1.1610299348831177,
                    -0.6830822229385376,
                    -0.3961898684501648,
                    -0.9356549382209778,
                    -0.5728450417518616,
                    -0.9086219668388367,
                    0.28305333852767944,
                    -0.0428476557135582,
                    0.41972067952156067,
                    0.23567727208137512,
                    -0.46573853492736816,
                    -0.10770490765571594,
                    -0.36987921595573425,
                    0.09979011118412018,
                    -0.8417196273803711,
                    -0.09667059034109116,
                    0.2600368559360504,
                    0.7297918200492859,
                    -0.1533166468143463,
                    1.3371771574020386,
                    -0.5061686635017395,
                    -0.31367620825767517,
                    -0.7434785962104797,
                    -0.8038285970687866,
                    0.20734958350658417,
                    -0.9254694581031799,
                    -1.3079593181610107,
                    -0.7626030445098877,
                    0.6252611875534058,
                    1.0190309286117554,
                    -1.0707545280456543
                ],
                [
                    1.0280483961105347,
                    -0.8801124095916748,
                    0.14393307268619537,
                    0.6098082065582275,
                    -0.18421192467212677,
                    -0.44073715806007385,
                    -0.09667555242776871,
                    -0.1945156455039978,
                    -0.3446715474128723,
                    -0.2766965925693512,
                    -0.7549383640289307,
                    -0.12269141525030136,
                    -0.3040895462036133,
                    0.8154566287994385,
                    0.690387487411499,
                    0.7344011068344116,
                    -0.27037006616592407,
                    0.25620612502098083,
                    -0.6914966702461243,
                    0.5636550188064575,
                    0.9134540557861328,
                    -0.2858239710330963,
                    0.010919163934886456,
                    -0.9580037593841553,
                    0.854038417339325,
                    0.3253677785396576,
                    -0.8405728936195374,
                    -0.8700821995735168,
                    -0.32394155859947205,
                    -0.7859609723091125,
                    -0.3141959607601166,
                    -0.7869901061058044,
                    -0.4171510934829712,
                    0.7501075863838196,
                    0.820465087890625,
                    0.3692694306373596,
                    -0.142142653465271,
                    -0.7640847563743591,
                    0.12048036605119705,
                    0.5394245386123657,
                    -0.4899323284626007,
                    0.4303608536720276,
                    0.5282713174819946,
                    0.5369902849197388,
                    -0.2512691915035248,
                    -0.258728951215744,
                    -0.009671686217188835,
                    0.5973429083824158,
                    -1.0226643085479736,
                    0.6009470820426941,
                    -0.7391718029975891,
                    -0.9061543345451355
                ],
                [
                    -0.46686244010925293,
                    0.31814900040626526,
                    -0.8947845101356506,
                    0.9491638541221619,
                    -0.4140692353248596,
                    -0.7859212756156921,
                    -0.9254693388938904,
                    0.29543977975845337,
                    -0.4308864176273346,
                    -0.03260865435004234,
                    0.8730362057685852,
                    -0.01056432630866766,
                    -0.5703305602073669,
                    0.07947628945112228,
                    -0.4672897160053253,
                    0.5110113620758057,
                    -1.4373716115951538,
                    0.27599847316741943,
                    -0.18133646249771118,
                    -0.08756031095981598,
                    -0.07382986694574356,
                    -0.20242393016815186,
                    -0.7317829728126526,
                    0.8500838279724121,
                    -0.07672350853681564,
                    0.7153905034065247,
                    0.5277469754219055,
                    0.0554967075586319,
                    -0.2078242003917694,
                    0.9640768766403198,
                    -0.0859585553407669,
                    -0.12018292397260666,
                    0.40098652243614197,
                    0.028879372403025627,
                    -0.030521435663104057,
                    -0.947412371635437,
                    0.3842117190361023,
                    -0.25157684087753296,
                    0.29433485865592957,
                    -1.2324093580245972,
                    0.4034351110458374,
                    -0.22637780010700226,
                    0.3799315094947815,
                    -0.8306987881660461,
                    -0.7842756509780884,
                    0.5557422637939453,
                    0.6671101450920105,
                    -0.8845654129981995,
                    0.10615117847919464,
                    -0.05102267488837242,
                    -0.277970552444458,
                    -1.4411998987197876
                ],
                [
                    -0.00582042196765542,
                    0.23531746864318848,
                    0.9081441760063171,
                    0.7624243497848511,
                    -0.4961448907852173,
                    0.4431665539741516,
                    -0.1998382955789566,
                    0.11524102091789246,
                    0.43806684017181396,
                    0.6075277328491211,
                    -0.32222485542297363,
                    0.08594785630702972,
                    -0.04840216413140297,
                    -0.21732847392559052,
                    0.012115282006561756,
                    -0.47275015711784363,
                    0.7524514198303223,
                    -0.9409095644950867,
                    -0.6786065101623535,
                    0.6504769921302795,
                    -0.08170723170042038,
                    1.3496816158294678,
                    0.6102880835533142,
                    0.011457052081823349,
                    0.2856873571872711,
                    0.5421034693717957,
                    0.08442911505699158,
                    -0.6535564064979553,
                    0.8547847867012024,
                    0.9339026808738708,
                    -0.8582141995429993,
                    -0.3179805874824524,
                    0.047219447791576385,
                    -0.6369275450706482,
                    -0.4597277045249939,
                    0.5988162755966187,
                    0.5991544127464294,
                    0.4752591550350189,
                    -0.11535190045833588,
                    -0.11227212101221085,
                    -0.5171257853507996,
                    0.061979420483112335,
                    0.9625409841537476,
                    -0.8222331404685974,
                    -0.7883557081222534,
                    -0.12787851691246033,
                    -0.21755166351795197,
                    1.2097480297088623,
                    0.0962587371468544,
                    0.40806522965431213,
                    0.4817768931388855,
                    0.34732377529144287
                ],
                [
                    0.11439777165651321,
                    0.1630295366048813,
                    0.013689670711755753,
                    -0.7655948400497437,
                    -0.7580147385597229,
                    -0.8991261720657349,
                    -0.43185296654701233,
                    -1.084677815437317,
                    -0.9341922402381897,
                    -0.299916535615921,
                    0.2794932723045349,
                    0.3534480929374695,
                    0.17311769723892212,
                    -0.006199671421200037,
                    -0.16355304419994354,
                    -0.02559535950422287,
                    -0.7007976770401001,
                    0.4736567735671997,
                    -1.1545952558517456,
                    0.677374005317688,
                    -0.3776383399963379,
                    -0.2760097086429596,
                    0.6446908116340637,
                    -0.29295769333839417,
                    -0.02441740222275257,
                    -0.36602461338043213,
                    -0.3467237949371338,
                    0.9952661395072937,
                    0.5144830346107483,
                    -0.9117245078086853,
                    0.7354126572608948,
                    -0.5380648970603943,
                    0.12930431962013245,
                    0.0622427836060524,
                    -0.2078302502632141,
                    0.41902798414230347,
                    -0.04396937042474747,
                    0.49514326453208923,
                    0.5049431324005127,
                    -0.12765920162200928,
                    -1.4046881198883057,
                    -0.7160073518753052,
                    -0.7853453159332275,
                    0.5117285847663879,
                    0.6447843909263611,
                    -0.0514339879155159,
                    -0.4364359974861145,
                    1.1896390914916992,
                    -0.41273126006126404,
                    -0.2868060767650604,
                    0.4885653853416443,
                    -0.4575977623462677
                ],
                [
                    -0.20616331696510315,
                    0.20422108471393585,
                    0.9043505787849426,
                    0.6037380695343018,
                    0.3750457763671875,
                    -0.4396185278892517,
                    0.5863064527511597,
                    -0.2919144332408905,
                    -0.32031357288360596,
                    0.311865895986557,
                    0.8521717190742493,
                    1.0494158267974854,
                    -0.5159276723861694,
                    -1.1816253662109375,
                    0.3526250123977661,
                    0.6422333121299744,
                    0.14366291463375092,
                    -0.38987094163894653,
                    -0.5021526217460632,
                    0.634276807308197,
                    -0.01915503665804863,
                    0.6285452246665955,
                    -0.06444422900676727,
                    -0.5013388991355896,
                    0.9565808773040771,
                    0.7059562802314758,
                    -0.5752089619636536,
                    -0.5327261090278625,
                    0.8915907740592957,
                    0.8665792346000671,
                    0.40249934792518616,
                    -0.48151808977127075,
                    -0.05120021104812622,
                    0.6199917197227478,
                    -0.7819522023200989,
                    -0.628412663936615,
                    -1.026710033416748,
                    0.9391766786575317,
                    0.25026360154151917,
                    -0.4965190589427948,
                    -0.34886831045150757,
                    -0.39800673723220825,
                    -0.45823684334754944,
                    0.8784976005554199,
                    -0.21263641119003296,
                    0.791856586933136,
                    0.5981578230857849,
                    1.1766767501831055,
                    -0.43297138810157776,
                    -0.5997684001922607,
                    0.43250566720962524,
                    -0.11935511231422424
                ],
                [
                    0.4308907091617584,
                    -0.5332368016242981,
                    -0.9685690402984619,
                    0.1765689104795456,
                    0.6674230098724365,
                    -0.306314080953598,
                    0.6308544874191284,
                    0.5579615831375122,
                    -0.6363649964332581,
                    0.0374736562371254,
                    -0.41750508546829224,
                    0.5535537004470825,
                    -0.25192180275917053,
                    -1.0908868312835693,
                    0.7955222129821777,
                    -0.0701434537768364,
                    0.7868096232414246,
                    -0.22614450752735138,
                    0.4202241003513336,
                    0.24726001918315887,
                    0.5447994470596313,
                    0.1964469701051712,
                    -0.03151453658938408,
                    -0.8462923169136047,
                    -0.9551013708114624,
                    -0.25084370374679565,
                    -0.9333710670471191,
                    -0.4663236141204834,
                    -0.35314807295799255,
                    0.45396295189857483,
                    -1.1916532516479492,
                    0.8646071553230286,
                    0.7738316059112549,
                    -0.8432984352111816,
                    0.17155037820339203,
                    0.5055186152458191,
                    -0.5912665724754333,
                    -0.06651078164577484,
                    0.06440133601427078,
                    -0.3692994713783264,
                    0.1799841672182083,
                    0.15557090938091278,
                    -1.1647796630859375,
                    -0.17743030190467834,
                    0.5072923898696899,
                    0.8599103093147278,
                    0.8235616683959961,
                    0.5682897567749023,
                    -0.13758455216884613,
                    0.4149019420146942,
                    -0.5522481203079224,
                    -1.3360083103179932
                ],
                [
                    0.43020710349082947,
                    0.5164008140563965,
                    -0.5364115238189697,
                    0.6636073589324951,
                    0.7801639437675476,
                    -0.24140910804271698,
                    -0.8194426894187927,
                    -0.45329296588897705,
                    -0.9571080803871155,
                    -0.7921277284622192,
                    -0.4751076400279999,
                    1.0218863487243652,
                    -0.7309704422950745,
                    0.3181200325489044,
                    0.31344449520111084,
                    -0.15389735996723175,
                    0.9434625506401062,
                    -0.9860074520111084,
                    0.5974196195602417,
                    1.0570127964019775,
                    0.5030776262283325,
                    1.1557635068893433,
                    -0.331563264131546,
                    -0.1255931258201599,
                    0.7796684503555298,
                    -1.1007121801376343,
                    -0.8995670676231384,
                    -0.4686926603317261,
                    0.7270100712776184,
                    -0.47964969277381897,
                    -0.4047715365886688,
                    0.338853120803833,
                    0.8825979828834534,
                    0.3888687193393707,
                    0.12457101047039032,
                    0.6547642946243286,
                    0.7335503697395325,
                    0.1600121557712555,
                    -0.9125984311103821,
                    0.6801588535308838,
                    -1.348460078239441,
                    -0.6229884028434753,
                    0.38274085521698,
                    0.7742037177085876,
                    0.8381436467170715,
                    -0.0544704869389534,
                    -0.33404672145843506,
                    0.9689632654190063,
                    0.6952741742134094,
                    -0.6673141717910767,
                    0.8401118516921997,
                    -0.9727497100830078
                ],
                [
                    -0.9539114236831665,
                    -0.8375877141952515,
                    0.6988790035247803,
                    0.9843772053718567,
                    -0.405535489320755,
                    0.9217619299888611,
                    -0.494370698928833,
                    -1.05803382396698,
                    -0.634937047958374,
                    0.3043363392353058,
                    1.1650774478912354,
                    -0.7162741422653198,
                    -0.4280366897583008,
                    -0.3512057363986969,
                    0.8951929211616516,
                    -0.5453251600265503,
                    0.7586050629615784,
                    0.5736428499221802,
                    -1.030955195426941,
                    0.695209264755249,
                    -0.8081239461898804,
                    1.1754026412963867,
                    -0.08650869131088257,
                    -0.9659374952316284,
                    -0.08052794635295868,
                    -0.35367438197135925,
                    0.6357152462005615,
                    -0.8099966645240784,
                    0.7880873084068298,
                    0.25750282406806946,
                    -0.21373966336250305,
                    0.9957452416419983,
                    0.540579617023468,
                    -0.09752626717090607,
                    1.0120266675949097,
                    -0.9161936640739441,
                    -0.5785569548606873,
                    -0.9564510583877563,
                    -0.5940550565719604,
                    0.04141001030802727,
                    -1.1797844171524048,
                    -0.9429855942726135,
                    0.09308486431837082,
                    -0.505759060382843,
                    -0.11746335029602051,
                    -0.07867274433374405,
                    -0.03741012513637543,
                    0.05655907839536667,
                    0.12437640875577927,
                    0.3051993250846863,
                    1.0473296642303467,
                    -0.1546943485736847
                ],
                [
                    0.426673024892807,
                    -0.46065273880958557,
                    0.2385806441307068,
                    -0.8997265100479126,
                    -0.9241451025009155,
                    -0.17108087241649628,
                    -0.7312472462654114,
                    1.3271442651748657,
                    -0.7672923803329468,
                    0.8511817455291748,
                    0.4766073226928711,
                    0.6620803475379944,
                    1.0202041864395142,
                    1.0770643949508667,
                    0.7391458749771118,
                    -0.4128979742527008,
                    -0.7387406826019287,
                    -0.9938040375709534,
                    0.4219173491001129,
                    -0.4792245030403137,
                    -0.8307931423187256,
                    -0.7664880752563477,
                    -0.4547079801559448,
                    -0.0629514828324318,
                    0.36551591753959656,
                    0.041220374405384064,
                    0.37727656960487366,
                    -0.7693502306938171,
                    -0.3184884488582611,
                    0.12262384593486786,
                    0.3224966824054718,
                    0.8546993136405945,
                    0.7186660766601563,
                    -0.3489070236682892,
                    1.0537201166152954,
                    0.7837075591087341,
                    0.5328850150108337,
                    -1.1718473434448242,
                    0.6339524984359741,
                    0.6526122689247131,
                    -0.5823085904121399,
                    0.48294878005981445,
                    0.5095524191856384,
                    0.5129517316818237,
                    0.439651221036911,
                    0.2180883139371872,
                    0.9186612963676453,
                    0.7683030962944031,
                    0.5344487428665161,
                    0.46750009059906006,
                    0.7537764310836792,
                    -0.22770434617996216
                ],
                [
                    0.8592026829719543,
                    -0.7339142560958862,
                    -0.41824090480804443,
                    0.146792933344841,
                    0.6890684962272644,
                    -0.9835634827613831,
                    0.37433770298957825,
                    -0.3490583002567291,
                    0.10933881253004074,
                    -0.15570957958698273,
                    -0.5635703802108765,
                    -0.16828592121601105,
                    0.4704311192035675,
                    -1.041972041130066,
                    -0.4337363541126251,
                    0.05980850011110306,
                    -0.6088084578514099,
                    -0.6238629221916199,
                    -0.1016809418797493,
                    0.6168999075889587,
                    0.6837299466133118,
                    -0.4881313145160675,
                    0.27404695749282837,
                    -0.004195383749902248,
                    0.5163605809211731,
                    0.11345657706260681,
                    -0.4100121557712555,
                    -0.0724836215376854,
                    -0.39014458656311035,
                    -0.7232678532600403,
                    -0.37628602981567383,
                    -0.6001875400543213,
                    -0.47026652097702026,
                    0.1525186002254486,
                    0.5471538305282593,
                    -0.7982804179191589,
                    0.1585502177476883,
                    -0.0765635222196579,
                    -0.4277864694595337,
                    -0.8039810657501221,
                    0.8219351768493652,
                    -0.1994554102420807,
                    0.1713709980249405,
                    0.19925126433372498,
                    -0.05447576195001602,
                    0.6351696848869324,
                    -0.7234793305397034,
                    0.26107141375541687,
                    0.8345575928688049,
                    0.11501506716012955,
                    0.09146531671285629,
                    -0.1327759325504303
                ],
                [
                    0.38942909240722656,
                    -0.6658394932746887,
                    -0.48978233337402344,
                    -0.11727004498243332,
                    0.6180953979492188,
                    0.158807173371315,
                    0.8234034180641174,
                    -0.8568020462989807,
                    0.378024697303772,
                    -0.6843172907829285,
                    -0.2983868718147278,
                    0.8108035326004028,
                    0.5408425331115723,
                    -0.4877297878265381,
                    -0.9502174854278564,
                    -0.2700359523296356,
                    0.07857664674520493,
                    -0.41752785444259644,
                    0.11286793649196625,
                    -0.1900603473186493,
                    0.6092735528945923,
                    -0.8301990628242493,
                    -0.965092122554779,
                    -0.6454090476036072,
                    0.6685263514518738,
                    -1.0616997480392456,
                    0.6184312701225281,
                    0.4963536262512207,
                    0.3875538408756256,
                    -0.21267478168010712,
                    0.18778318166732788,
                    -0.23116439580917358,
                    0.20978403091430664,
                    0.5506443977355957,
                    0.7384874224662781,
                    -0.18831531703472137,
                    -0.3265727460384369,
                    0.41006195545196533,
                    0.05377677455544472,
                    -0.6883701682090759,
                    1.170474886894226,
                    0.6935675144195557,
                    0.9240070581436157,
                    0.4274567663669586,
                    0.675855815410614,
                    -0.9962520599365234,
                    -0.9538945555686951,
                    -0.25416964292526245,
                    -0.32397058606147766,
                    0.12319032847881317,
                    0.8706008195877075,
                    -0.7457583546638489
                ],
                [
                    0.1358599066734314,
                    0.8428925275802612,
                    -0.47725072503089905,
                    -0.19519850611686707,
                    -0.8360496163368225,
                    -0.7628746628761292,
                    -0.6774066686630249,
                    0.3926772177219391,
                    0.03701946139335632,
                    0.4890011250972748,
                    -0.6917441487312317,
                    -0.8053434491157532,
                    -0.09230778366327286,
                    0.9772661328315735,
                    0.03108997829258442,
                    0.5658136606216431,
                    0.31069955229759216,
                    -1.1072912216186523,
                    0.7099634408950806,
                    0.22863511741161346,
                    0.8689966797828674,
                    0.511681318283081,
                    -0.22379070520401,
                    0.6642025709152222,
                    0.5239867568016052,
                    0.13278436660766602,
                    -0.34038835763931274,
                    -0.81402188539505,
                    0.9960777759552002,
                    -0.5069932341575623,
                    -0.6666041016578674,
                    0.13205130398273468,
                    -0.657784104347229,
                    -0.13810397684574127,
                    0.920518696308136,
                    -0.5043328404426575,
                    0.03378228843212128,
                    -0.7800878882408142,
                    -0.963145911693573,
                    -0.84310382604599,
                    0.7851742506027222,
                    -0.6536092758178711,
                    -0.7832549214363098,
                    -0.462752103805542,
                    -0.7128955721855164,
                    0.4119381606578827,
                    -0.9601688385009766,
                    0.5383933782577515,
                    0.4675399959087372,
                    0.5213160514831543,
                    0.13621941208839417,
                    0.32688674330711365
                ],
                [
                    0.19692713022232056,
                    0.9832884669303894,
                    -0.10919234156608582,
                    -0.26381897926330566,
                    -0.19650296866893768,
                    0.6466377973556519,
                    -0.07328107208013535,
                    -0.5990946292877197,
                    -0.9805784225463867,
                    0.22977599501609802,
                    0.6508144736289978,
                    -0.6524357199668884,
                    -0.9049749970436096,
                    0.8465560078620911,
                    -0.14703664183616638,
                    0.18479099869728088,
                    -0.944442868232727,
                    -0.08661234378814697,
                    0.4186078906059265,
                    0.8081563115119934,
                    0.2867303192615509,
                    0.6106160283088684,
                    -0.703486442565918,
                    0.5578669309616089,
                    0.0171124916523695,
                    -0.5572283267974854,
                    0.38101598620414734,
                    -0.5380820631980896,
                    -0.9011918902397156,
                    -0.5206839442253113,
                    0.6951536536216736,
                    0.3138149678707123,
                    -0.6060698628425598,
                    -0.40699300169944763,
                    -0.9533164501190186,
                    0.19097068905830383,
                    -0.866572380065918,
                    0.021568218246102333,
                    0.9875426888465881,
                    -0.6234017610549927,
                    -0.624773383140564,
                    0.916362464427948,
                    -0.5249441266059875,
                    -0.6839333176612854,
                    0.6947852969169617,
                    0.35907942056655884,
                    0.4731239378452301,
                    0.6295815110206604,
                    -0.7560480833053589,
                    -0.202398419380188,
                    0.6831640005111694,
                    0.687232255935669
                ],
                [
                    -0.5516725778579712,
                    0.9782688617706299,
                    0.05741071701049805,
                    0.46387696266174316,
                    -0.6224967241287231,
                    -0.587905764579773,
                    0.9317646026611328,
                    -0.523550271987915,
                    -0.0997667908668518,
                    0.6295889616012573,
                    0.7902491092681885,
                    0.29090607166290283,
                    -0.7824295163154602,
                    0.8409589529037476,
                    -0.5181252956390381,
                    -0.6532543897628784,
                    -0.1815747618675232,
                    -0.530577540397644,
                    -0.5051389932632446,
                    0.03927934169769287,
                    -0.6145328879356384,
                    0.001413106918334961,
                    0.3553098440170288,
                    -0.8278967142105103,
                    -0.638227641582489,
                    -0.1471535563468933,
                    -0.905868411064148,
                    -0.3861953616142273,
                    0.6554102897644043,
                    0.7759289741516113,
                    -0.8940463662147522,
                    -0.8962622284889221,
                    0.7541978359222412,
                    0.16336441040039063,
                    0.5676146745681763,
                    -0.8682988882064819,
                    0.5754585266113281,
                    0.4993792772293091,
                    -0.391849160194397,
                    -0.5243082046508789,
                    0.1289682388305664,
                    -0.6016000509262085,
                    0.7665978670120239,
                    0.346538782119751,
                    -0.7606410384178162,
                    -0.7515274286270142,
                    0.6932843923568726,
                    0.057784199714660645,
                    -0.2821049690246582,
                    -0.8118546605110168,
                    -0.9029365181922913,
                    0.10336220264434814
                ],
                [
                    0.1895585060119629,
                    0.4523732662200928,
                    0.2754654884338379,
                    0.5513308048248291,
                    -0.6947802305221558,
                    0.36959707736968994,
                    -0.8348645567893982,
                    0.9606300592422485,
                    0.14552605152130127,
                    -0.7289109230041504,
                    -0.9356321692466736,
                    -0.10027611255645752,
                    0.43445348739624023,
                    0.6319825649261475,
                    0.03142499923706055,
                    0.00991201400756836,
                    0.13136184215545654,
                    0.6395758390426636,
                    0.48560380935668945,
                    -0.7396698594093323,
                    -0.9620242118835449,
                    0.2522016763687134,
                    0.6068688631057739,
                    -0.7226653099060059,
                    0.5006742477416992,
                    0.30015313625335693,
                    0.3351188898086548,
                    -0.781430721282959,
                    0.48829853534698486,
                    0.4321824312210083,
                    0.32193148136138916,
                    -0.32214295864105225,
                    -0.11544430255889893,
                    -0.4026030898094177,
                    -0.7708121538162231,
                    0.1897754669189453,
                    0.9669939279556274,
                    -0.6056766510009766,
                    0.15040552616119385,
                    0.11251997947692871,
                    -0.33458757400512695,
                    0.2147732973098755,
                    -0.987756073474884,
                    -0.9001341462135315,
                    -0.15324407815933228,
                    0.04366886615753174,
                    0.10977792739868164,
                    0.978117823600769,
                    -0.3167552947998047,
                    -0.4046183228492737,
                    -0.761552095413208,
                    -0.2787795066833496
                ],
                [
                    0.8475834131240845,
                    0.8453167676925659,
                    -0.0014447569847106934,
                    0.3482576608657837,
                    0.1454700231552124,
                    -0.6663258671760559,
                    0.5668269395828247,
                    -0.3662315011024475,
                    0.7658565044403076,
                    -0.11124169826507568,
                    0.31162548065185547,
                    -0.3495877981185913,
                    0.48615527153015137,
                    0.5408134460449219,
                    0.8401875495910645,
                    0.4531491994857788,
                    0.9351366758346558,
                    -0.0094069242477417,
                    -0.4343307614326477,
                    -0.3994508981704712,
                    -0.7946335673332214,
                    -0.4220868945121765,
                    -0.2995850443840027,
                    0.05212235450744629,
                    0.62158203125,
                    0.8101928234100342,
                    0.030240178108215332,
                    -0.6951732635498047,
                    -0.5944254398345947,
                    0.2686880826950073,
                    0.026047229766845703,
                    -0.7468420267105103,
                    0.11400485038757324,
                    -0.9753974676132202,
                    0.6014155149459839,
                    -0.7405251860618591,
                    -0.6417233347892761,
                    0.1682424545288086,
                    -0.10675668716430664,
                    -0.8758668303489685,
                    -0.9429992437362671,
                    -0.7951311469078064,
                    -0.22545462846755981,
                    0.5431560277938843,
                    0.7456822395324707,
                    -0.38526707887649536,
                    -0.003694772720336914,
                    0.6808189153671265,
                    0.6053260564804077,
                    0.5619744062423706,
                    -0.7186319828033447,
                    0.8106924295425415
                ],
                [
                    -0.8601124286651611,
                    -0.018217027187347412,
                    -0.13718515634536743,
                    0.7614696025848389,
                    -0.20802414417266846,
                    0.8930549621582031,
                    -0.9337036609649658,
                    0.19755041599273682,
                    0.16174304485321045,
                    0.09234356880187988,
                    0.45070838928222656,
                    -0.7242521047592163,
                    0.11694610118865967,
                    0.05212390422821045,
                    -0.4647773504257202,
                    0.4752228260040283,
                    -0.779633641242981,
                    0.42846596240997314,
                    0.599355936050415,
                    -0.722632884979248,
                    0.6333348751068115,
                    -0.6260986328125,
                    0.8205231428146362,
                    0.3790171146392822,
                    -0.011365711688995361,
                    -0.18317168951034546,
                    0.05983603000640869,
                    -0.4060397148132324,
                    -0.6211972832679749,
                    0.34120404720306396,
                    -0.5953471660614014,
                    -0.481309711933136,
                    -0.6770129203796387,
                    0.2674676179885864,
                    -0.7198401689529419,
                    0.11496293544769287,
                    0.16052258014678955,
                    -0.6535438299179077,
                    -0.6874866485595703,
                    -0.677734375,
                    0.4387998580932617,
                    0.7632216215133667,
                    -0.4019864797592163,
                    -0.4442540407180786,
                    -0.18465441465377808,
                    0.13323616981506348,
                    -0.9690312147140503,
                    0.03571188449859619,
                    -0.4382978677749634,
                    0.6303247213363647,
                    0.31307899951934814,
                    -0.8049629926681519
                ],
                [
                    -0.9957739114761353,
                    0.13360214233398438,
                    0.5740541219711304,
                    -0.007139623165130615,
                    0.9504303932189941,
                    -0.3661099076271057,
                    0.5868207216262817,
                    -0.6707668304443359,
                    0.975094199180603,
                    0.9914734363555908,
                    -0.15207654237747192,
                    -0.7019188404083252,
                    0.25894105434417725,
                    0.12808334827423096,
                    0.4130440950393677,
                    -0.5805362462997437,
                    0.47453951835632324,
                    0.7255574464797974,
                    -0.25827062129974365,
                    -0.08666068315505981,
                    0.48877906799316406,
                    0.33974289894104004,
                    0.46908533573150635,
                    -0.6958752870559692,
                    -0.5270209312438965,
                    0.500054121017456,
                    0.33983659744262695,
                    0.03468120098114014,
                    0.1303788423538208,
                    -0.3470844030380249,
                    0.22971820831298828,
                    0.13460493087768555,
                    0.7865177392959595,
                    -0.1962277889251709,
                    -0.8725346922874451,
                    0.7369481325149536,
                    0.43766236305236816,
                    0.7142859697341919,
                    -0.9338186979293823,
                    0.41275644302368164,
                    0.7057595252990723,
                    -0.08589524030685425,
                    0.7108376026153564,
                    -0.03529942035675049,
                    -0.9578119516372681,
                    0.12388181686401367,
                    0.38416433334350586,
                    0.5167275667190552,
                    -0.15056079626083374,
                    -0.8741063475608826,
                    -0.5699331760406494,
                    -0.6617816686630249
                ],
                [
                    0.4367782175540924,
                    0.9296958446502686,
                    -0.3553525507450104,
                    0.9386205077171326,
                    0.38813644647598267,
                    0.7958784103393555,
                    -0.02669912949204445,
                    -0.3375638723373413,
                    -0.36946654319763184,
                    -0.7853681445121765,
                    0.5450118184089661,
                    -0.5677803158760071,
                    -0.026840293779969215,
                    0.79249507188797,
                    -0.8489878177642822,
                    -0.5629896521568298,
                    0.5232263207435608,
                    -0.7580532431602478,
                    0.7727490067481995,
                    0.3119274079799652,
                    0.13100965321063995,
                    0.597197413444519,
                    -0.8242940306663513,
                    0.1800764948129654,
                    -0.30871835350990295,
                    0.5846660733222961,
                    -0.2975285053253174,
                    0.5403338670730591,
                    0.6864991188049316,
                    0.12801437079906464,
                    0.8799970149993896,
                    0.15209969878196716,
                    0.03014405257999897,
                    -0.48887908458709717,
                    0.09105724096298218,
                    -0.57294762134552,
                    -0.4985247552394867,
                    -0.8481576442718506,
                    -0.044253718107938766,
                    0.12999899685382843,
                    -0.638350248336792,
                    -0.37936684489250183,
                    0.6862257122993469,
                    0.27554240822792053,
                    -0.5826514959335327,
                    0.7194321751594543,
                    0.7189992070198059,
                    0.9365746378898621,
                    0.9898455739021301,
                    0.5716572999954224,
                    0.19381456077098846,
                    -0.11266668140888214
                ],
                [
                    -0.0197699386626482,
                    0.22293972969055176,
                    -0.7511500716209412,
                    0.8238134980201721,
                    -0.12490927428007126,
                    -0.46959319710731506,
                    0.3771044611930847,
                    -0.740166425704956,
                    -0.9240255355834961,
                    0.0943882018327713,
                    0.517749011516571,
                    0.09268393367528915,
                    0.8048350214958191,
                    -0.11231908202171326,
                    0.5403513312339783,
                    -0.7172532081604004,
                    -0.2511146664619446,
                    -0.5289193391799927,
                    0.5504376888275146,
                    0.16070716083049774,
                    0.25940266251564026,
                    -0.309568852186203,
                    -0.5934146642684937,
                    0.5119420289993286,
                    -0.2910619378089905,
                    -0.7220079898834229,
                    0.4740675985813141,
                    -0.3715674877166748,
                    0.6942278742790222,
                    -0.42990919947624207,
                    0.7377501130104065,
                    -0.1622384786605835,
                    0.9019964337348938,
                    0.9934136867523193,
                    -0.3578543961048126,
                    -0.25465843081474304,
                    -0.1271824985742569,
                    -0.970810055732727,
                    0.30046573281288147,
                    0.3955892026424408,
                    0.5908479690551758,
                    0.0030967106577008963,
                    -0.6792287230491638,
                    0.08495993167161942,
                    0.7752713561058044,
                    0.7450369596481323,
                    0.31218478083610535,
                    -0.9623209834098816,
                    -0.8657137751579285,
                    -0.2947057783603668,
                    0.8726881146430969,
                    0.45330238342285156
                ],
                [
                    0.9517051577568054,
                    -0.6173826456069946,
                    -0.16220922768115997,
                    -0.5330567955970764,
                    -0.7004269957542419,
                    -0.5079450011253357,
                    0.12343809008598328,
                    -1.3924812078475952,
                    -0.08325252681970596,
                    -0.7555861473083496,
                    0.6739509105682373,
                    -0.2633560597896576,
                    -0.15851366519927979,
                    0.5021282434463501,
                    0.5714068412780762,
                    0.8419677019119263,
                    -0.0408717580139637,
                    -0.20651033520698547,
                    0.21342957019805908,
                    -0.4255005121231079,
                    0.9707550406455994,
                    1.036532998085022,
                    0.954644501209259,
                    0.5963781476020813,
                    -0.31629514694213867,
                    0.35888543725013733,
                    -0.6936399340629578,
                    -0.1204492375254631,
                    -0.8908965587615967,
                    -0.9467292428016663,
                    -0.7618090510368347,
                    0.8795062303543091,
                    -0.679026186466217,
                    0.20822253823280334,
                    -0.9208989143371582,
                    -0.4280449450016022,
                    0.27187323570251465,
                    0.2647585868835449,
                    -0.43541038036346436,
                    -0.7489858865737915,
                    -1.4308372735977173,
                    0.39755716919898987,
                    -0.04146350547671318,
                    0.16065245866775513,
                    -0.12136708945035934,
                    -0.4446691572666168,
                    -0.03521022945642471,
                    -0.75175940990448,
                    0.24476203322410583,
                    0.390826940536499,
                    0.31025633215904236,
                    0.29472365975379944
                ],
                [
                    -0.09932486712932587,
                    0.5028417110443115,
                    -0.24874567985534668,
                    0.4981032609939575,
                    -0.39755868911743164,
                    0.5094969272613525,
                    -0.5962987542152405,
                    -0.4368912875652313,
                    0.10413800925016403,
                    -0.22576045989990234,
                    -1.0072047710418701,
                    0.356585830450058,
                    0.7389538884162903,
                    -0.012662970460951328,
                    0.8456649780273438,
                    0.0905776098370552,
                    -0.22752538323402405,
